/*!
 * The following copyright notice may not be removed under any circumstances.
 * 
 * Copyright:
 * Generated in 2009 by FontLab Studio. Copyright info pending.
 */
Cufon.registerFont({"w":790,"face":{"font-family":"ChunkFive","font-weight":400,"font-stretch":"normal","units-per-em":"2048","panose-1":"0 0 0 0 0 0 0 0 0 0","ascent":"1536","descent":"-512","x-height":"27","bbox":"-20 -1669 3449 471","underline-thickness":"102","underline-position":"-102","unicode-range":"U+0020-U+FB04"},"glyphs":{" ":{"w":512},"!":{"d":"291,2v-120,0,-234,-99,-234,-211v0,-117,106,-217,234,-217v131,0,244,93,244,217v0,123,-112,211,-244,211xm66,-1042r0,-390r489,0r0,390r-109,516r-270,0","w":630},"'":{"d":"74,-1436r405,0r-73,613r-256,0","w":559},"(":{"d":"532,428v-300,-269,-602,-840,-430,-1408v88,-288,247,-515,430,-689r211,217v-168,203,-315,437,-315,813v0,390,138,643,315,848","w":794},")":{"d":"367,-637v0,-375,-148,-611,-316,-813r211,-217v242,231,472,563,481,1030v8,443,-244,854,-481,1067r-211,-219v178,-206,316,-458,316,-848","w":794},",":{"d":"-12,264v144,-188,214,-343,194,-665r373,98v4,307,-149,539,-332,700","w":557},"-":{"d":"96,-352r0,-273r594,0r0,273r-594,0"},".":{"d":"262,8v-123,0,-231,-105,-231,-221v0,-117,102,-233,231,-233v129,0,237,115,236,233v0,132,-96,221,-236,221","w":528},"0":{"d":"618,25v-393,0,-587,-309,-587,-748v0,-395,212,-735,577,-735v414,0,588,315,588,749v0,423,-182,734,-578,734xm490,-1014v-70,151,-66,451,4,599v73,156,177,165,243,7v61,-146,62,-458,-4,-602v-68,-150,-170,-161,-243,-4","w":1226},"1":{"d":"51,-1163r125,-63v99,-55,163,-125,234,-206r364,0r0,1160r191,0r0,272r-820,0r0,-272r205,0r0,-760r-205,96","w":1015},"2":{"d":"600,-1454v269,0,487,179,487,448v0,109,-25,192,-71,251v-109,139,-458,303,-563,483r360,0r0,-164r344,0r0,436r-1106,0r0,-297v136,-229,231,-308,449,-459v68,-47,121,-88,158,-122v103,-94,58,-244,-117,-244v-64,0,-150,53,-181,82r-71,73r-221,-233v146,-169,323,-254,532,-254","w":1208},"3":{"d":"1075,-424v0,382,-505,560,-845,381v-91,-48,-158,-101,-199,-162r209,-217v89,89,179,133,270,133v108,1,184,-53,184,-157v0,-100,-57,-150,-170,-150r-153,0r0,-244r149,0v96,1,174,-47,174,-141v0,-101,-84,-162,-180,-162v-82,0,-162,41,-240,123r-198,-240v81,-89,268,-194,438,-194v306,0,520,150,522,434v0,95,-50,182,-151,260v127,91,190,203,190,336","w":1105},"4":{"d":"20,-403r0,-293r590,-736r424,0r0,807r109,0r0,222r-109,0r0,133r111,0r0,270r-664,0r0,-270r129,0r0,-133r-590,0xm307,-625r303,0r0,-379","w":1196},"5":{"d":"674,-977v263,-1,485,203,477,485v-8,271,-179,419,-391,485v-181,57,-356,43,-517,-41v-97,-51,-168,-108,-212,-173r223,-232v98,101,194,152,287,152v129,0,225,-82,225,-205v0,-109,-97,-199,-209,-199v-68,0,-132,32,-192,95r-263,-117r125,-705r811,0r0,306r-551,0r-34,198v51,-33,124,-49,221,-49","w":1181},"6":{"d":"207,-147v-242,-229,-208,-829,-19,-1087v85,-116,246,-216,447,-220v162,-3,393,77,483,162r-139,266v-119,-69,-218,-104,-299,-104v-156,2,-250,132,-268,278v51,-53,166,-99,268,-104v264,-12,479,191,479,456v0,294,-227,514,-530,518v-171,2,-306,-55,-422,-165xm606,-303v98,0,191,-79,187,-176v-4,-97,-57,-190,-166,-183v-81,5,-151,43,-211,117v-1,112,72,242,190,242","w":1189},"7":{"d":"31,-1026r0,-406r1108,0r0,273r-551,1159r-443,0r549,-1159r-336,0r0,133r-327,0","w":1159},"8":{"d":"573,27v-305,0,-542,-168,-542,-447v0,-151,107,-309,221,-360v-86,-49,-154,-152,-154,-273v0,-251,213,-403,488,-403v280,0,486,149,489,403v1,132,-80,236,-172,279v120,54,211,194,211,354v0,274,-244,447,-541,447xm504,-614v-56,32,-117,102,-119,182v-2,96,93,168,190,168v105,0,187,-63,189,-168v3,-130,-139,-176,-260,-182xm582,-1198v-73,0,-151,60,-148,129v5,97,99,134,203,135v65,-31,98,-76,98,-135v0,-74,-77,-129,-153,-129","w":1144},"9":{"d":"170,-601v-187,-176,-177,-518,4,-697v98,-97,224,-151,387,-156v360,-12,608,269,608,641v0,257,-52,474,-163,623v-86,115,-250,204,-451,208v-162,3,-393,-77,-483,-161r139,-267v119,69,218,105,299,105v158,0,255,-110,250,-279v-147,152,-436,128,-590,-17xm584,-1133v-99,0,-191,79,-187,177v4,97,57,188,166,182v68,-4,132,-42,193,-117v0,-118,-52,-242,-172,-242","w":1202},":":{"d":"258,16v-120,0,-227,-104,-227,-217v0,-117,100,-229,227,-229v128,0,231,113,231,229v0,124,-102,217,-231,217xm258,-606v-115,0,-227,-108,-227,-217v0,-117,100,-230,227,-230v128,0,231,114,231,230v1,128,-96,217,-231,217","w":520},";":{"d":"205,-401v18,321,-51,477,-195,665r236,133v184,-162,335,-392,332,-700xm352,-567v-117,0,-231,-109,-231,-221v0,-117,102,-234,231,-234v129,0,236,117,236,234v0,129,-99,221,-236,221","w":618},"=":{"d":"90,-352r0,-273r844,0r0,273r-844,0xm90,-805r0,-272r844,0r0,272r-844,0","w":1028},"?":{"d":"492,-1145v-107,5,-205,97,-267,168r-221,-223v151,-176,329,-264,533,-264v273,0,492,148,487,420v-4,211,-181,281,-292,386v-47,45,-30,104,-34,181r-379,0v2,-122,-18,-213,49,-291v68,-79,150,-129,224,-196v92,-84,55,-188,-100,-181xm498,2v-120,0,-234,-99,-234,-211v0,-117,106,-217,234,-217v132,0,243,93,243,217v0,123,-111,211,-243,211","w":1064},"@":{"w":1705},"A":{"d":"31,0r0,-268r139,0r276,-899r-84,0r0,-265r787,0r362,1164r144,0r0,268r-821,0r0,-268r194,0r-43,-140r-420,0r-43,140r160,0r0,268r-651,0xm641,-653r268,0r-135,-443","w":1685},"B":{"d":"1386,-416v-6,324,-200,416,-557,416r-778,0r0,-266r119,0r0,-901r-119,0r0,-265r764,0v335,0,502,117,502,351v0,190,-58,257,-201,317v154,42,273,154,270,348xm924,-442v0,-106,-64,-181,-172,-181r-158,0r0,357r164,0v93,0,166,-76,166,-176xm858,-1012v2,-88,-53,-149,-135,-149r-129,0r0,307r125,0v105,0,137,-54,139,-158","w":1406},"C":{"d":"754,33v-437,0,-730,-292,-723,-735v5,-344,178,-584,411,-701v186,-93,423,-59,527,86r47,-115r321,0r0,582r-366,0v-4,-137,-77,-261,-217,-258v-166,4,-244,214,-244,406v0,219,131,431,362,376v120,-29,194,-111,263,-192r239,262v-175,193,-381,289,-620,289","w":1404},"D":{"d":"1454,-735v1,475,-300,735,-786,735r-617,0r0,-272r127,0r0,-889r-127,0r0,-271r625,0v451,-11,777,275,778,697xm983,-735v1,-221,-92,-429,-307,-426r-78,0r0,889r78,0v227,-4,307,-218,307,-463","w":1474},"E":{"d":"51,0r0,-272r129,0r0,-889r-129,0r0,-271r1235,0r0,453r-354,0r0,-182r-328,0r0,282r389,0r0,273r-389,0r0,334r328,0r0,-191r354,0r0,463r-1235,0","w":1337},"F":{"d":"51,0r0,-272r127,0r0,-889r-127,0r0,-271r1225,0r0,453r-363,0r0,-182r-309,0r0,356r389,0r0,273r-389,0r0,260r209,0r0,272r-762,0","w":1306},"G":{"d":"674,18v-379,0,-643,-316,-643,-720v0,-216,61,-397,189,-539v158,-175,319,-244,570,-204v132,20,206,78,269,161r43,-148r305,0r0,605r-367,0v0,-146,-97,-258,-233,-260v-173,-1,-281,198,-281,385v0,196,97,376,281,376v93,0,158,-33,197,-100r0,-86r-125,0r0,-219r680,0r0,219r-82,0r0,512r-410,0r-63,-129v-50,83,-190,147,-330,147","w":1589},"H":{"d":"51,0r0,-270r113,0r0,-891r-113,0r0,-271r664,0r0,271r-127,0r0,309r389,0r0,-309r-121,0r0,-271r666,0r0,271r-119,0r0,891r119,0r0,270r-666,0r0,-270r121,0r0,-310r-389,0r0,310r127,0r0,270r-664,0","w":1572},"I":{"d":"51,0r0,-272r129,0r0,-889r-129,0r0,-271r680,0r0,271r-127,0r0,889r127,0r0,272r-680,0","w":782},"J":{"d":"727,-152v-4,388,-176,571,-577,570v-34,0,-70,-8,-107,-23r-2,-270v171,61,262,-35,262,-277r0,-1011r-176,0r0,-269r770,0r0,269r-170,0r0,1011","w":948},"K":{"d":"51,0r0,-266r111,0r0,-901r-111,0r0,-265r645,0r0,265r-110,0r0,333r381,-333r-148,0r0,-265r682,0r0,265r-119,0r-297,256r414,645r119,0r0,266r-799,0r0,-266r139,0r-221,-348r-151,129r0,219r110,0r0,266r-645,0","w":1669},"L":{"d":"51,0r0,-272r113,0r0,-889r-113,0r0,-271r647,0r0,271r-108,0r0,889r264,0r0,-260r344,0r0,532r-1147,0","w":1249},"M":{"d":"51,0r0,-264r111,0r0,-903r-109,0r0,-265r776,0r207,766r197,-766r780,0r0,265r-112,0r0,901r112,0r0,266r-647,0r0,-266r117,0r-2,-805r-8,0v-23,127,-45,218,-60,274r-215,797r-428,0r-229,-817v-23,-79,-38,-164,-43,-254r-9,0r0,807r117,0r0,264r-555,0","w":2064},"N":{"d":"51,0r0,-264r121,0r0,-903r-119,0r0,-265r588,0r504,752r-2,-487r-139,0r0,-265r616,0r0,265r-135,0r0,1167r-441,0r-522,-780r0,516r158,0r0,264r-629,0","w":1671},"O":{"d":"764,37v-457,-2,-733,-282,-733,-760v0,-429,296,-747,719,-747v484,0,733,286,735,761v2,460,-263,748,-721,746xm595,-1035v-106,223,-79,750,169,750v64,0,113,-39,152,-115v75,-146,72,-485,0,-632v-41,-83,-93,-124,-172,-123v-61,0,-111,40,-149,120","w":1515},"P":{"d":"1280,-993v0,274,-255,408,-539,405r-155,0r0,318r125,0r0,270r-660,0r0,-270r115,0r0,-893r-115,0r0,-269r664,0v348,-2,565,104,565,439xm879,-979v0,-119,-72,-187,-191,-186r-102,0r0,356r92,0v113,1,201,-60,201,-170","w":1310},"Q":{"d":"891,-12v-518,75,-860,-206,-860,-713v0,-409,282,-713,688,-713v462,0,700,273,700,727v0,217,-57,388,-170,512v23,89,53,133,90,133v43,0,43,-92,41,-151r136,0r0,104v1,189,-114,328,-308,328v-165,0,-271,-105,-317,-227xm552,-1021v-58,102,-84,261,-63,409v118,-125,327,-131,472,-19v14,-155,-9,-283,-65,-385v-85,-157,-251,-168,-344,-5xm840,-352v-16,-92,-25,-167,-109,-172v-56,-3,-102,49,-137,149v69,78,166,93,246,23","w":1546},"R":{"d":"1190,25v-258,0,-393,-132,-397,-381v-3,-190,-17,-227,-205,-232r0,318r125,0r0,270r-662,0r0,-270r115,0r0,-893r-115,0r0,-269r666,0v343,0,569,90,567,422v-1,167,-139,279,-297,297v134,16,268,143,268,291v0,93,17,139,50,139v55,0,48,-76,47,-133r137,0r0,113v-2,194,-93,328,-299,328xm680,-817v114,1,198,-56,197,-166v0,-121,-62,-182,-187,-182r-102,0r0,348r92,0","w":1509},"S":{"d":"733,-1155v-64,0,-141,43,-141,108v0,38,28,72,84,101v265,137,727,154,727,543v0,306,-242,434,-543,434v-179,0,-321,-63,-428,-189r-22,158r-359,0r0,-516r381,0v1,149,121,205,258,205v116,0,174,-34,174,-103v0,-25,-19,-47,-58,-66v-96,-46,-220,-61,-335,-105v-199,-76,-393,-178,-393,-443v0,-228,152,-357,326,-414v54,-18,108,-26,161,-26v211,0,354,69,428,208r21,-172r352,0r0,514r-371,0v3,-148,-115,-237,-262,-237","w":1454},"T":{"d":"31,-899r0,-533r1374,0r0,533r-301,0r0,-262r-172,0r0,889r170,0r0,272r-762,0r0,-272r168,0r0,-889r-176,0r0,262r-301,0","w":1435},"U":{"d":"31,-1165r0,-267r651,0r0,265r-111,0v7,237,-28,621,49,758v32,56,85,83,156,83v117,0,149,-35,180,-142v49,-166,21,-473,27,-693r-111,0r0,-271r607,0r0,265r-111,0r0,497v0,470,-196,705,-588,705v-424,0,-635,-243,-635,-694r0,-506r-114,0","w":1509},"V":{"d":"-20,-1165r0,-267r755,0r-2,267r-110,0v72,202,207,497,237,706r10,0v4,-61,27,-148,74,-260r186,-446r-106,0r-2,-267r582,0r0,267r-101,0r-491,1165r-377,0r-543,-1165r-112,0","w":1583},"W":{"d":"-20,-1165r0,-267r675,0r0,267r-118,0r53,299v19,82,41,216,65,403r11,0v8,-81,153,-758,202,-969r426,0v69,323,155,606,191,969r10,0v18,-221,83,-489,131,-702r-113,0r0,-267r586,0r0,267r-112,0r-306,1165r-485,0r-123,-487v-18,-65,-35,-150,-51,-254r-8,0v-35,237,-119,510,-174,741r-475,0r-271,-1165r-114,0","w":2078},"X":{"d":"51,0r0,-264r178,0r301,-391r-370,-510r-107,0r0,-267r811,0r0,267r-119,0r201,272r209,-272r-180,0r0,-267r680,0r0,267r-174,0r-310,395r369,504r119,0r0,266r-817,0r0,-266r116,0r-198,-266r-211,268r182,0r0,264r-680,0","w":1710},"Y":{"d":"-20,-1169r0,-263r700,0r0,263r-107,0v65,118,140,242,183,383r8,0v3,-12,20,-75,76,-177r112,-206r-112,0r0,-263r551,0r0,263r-111,0r-379,665r0,238r115,0r0,266r-656,0r0,-266r117,0r0,-242r-397,-661r-100,0","w":1370},"Z":{"d":"51,0r0,-266r746,-895r-387,2r2,266r-349,0r0,-539r1344,0r4,273r-749,889r378,0r2,-262r363,0r0,532r-1354,0","w":1462},"[":{"d":"723,-1434v353,-1,566,126,565,467v0,143,-74,256,-221,338r229,363r119,0r0,266r-393,0r-340,-549r-88,0r0,279r125,0r0,270r-660,0r0,-270r115,0r0,-893r-115,0r0,-271r664,0xm887,-979v0,-119,-72,-187,-191,-186r-102,0r0,356r92,0v113,1,201,-60,201,-170","w":1474},"\\":{"w":1337},"]":{"d":"61,0r0,-266r84,0r0,-1002r-84,0r0,-268r474,0r0,926r237,-142r-147,0r0,-272r573,0r0,272r-158,0r-129,76r285,408r84,0r0,268r-332,0r-344,-489r-72,49r0,172r146,0r0,268r-617,0","w":1325},"a":{"d":"434,39v-211,3,-403,-123,-403,-342v0,-227,199,-380,426,-377v82,1,166,32,202,72r0,-72v0,-77,-65,-115,-194,-115v-90,0,-192,32,-305,95r-86,-238v229,-131,383,-177,638,-124v198,41,364,159,363,400r0,400r123,0r0,262r-438,0r-49,-92v-53,81,-162,130,-277,131xm528,-227v56,0,111,-33,131,-68r0,-78v-23,-39,-63,-59,-120,-59v-79,-1,-119,35,-119,108v-1,58,48,97,108,97","w":1228},"b":{"d":"825,23v-129,-1,-205,-29,-270,-93r-31,70r-461,0r0,-266r87,0r0,-1002r-87,0r0,-268r496,0r0,592v40,-51,174,-96,268,-96v288,0,472,242,472,522v0,311,-172,543,-474,541xm700,-752v-99,0,-145,135,-145,263v0,112,55,245,147,245v105,0,146,-128,146,-256v0,-110,-50,-252,-148,-252","w":1343},"c":{"d":"565,29v-322,0,-563,-212,-563,-547v0,-321,207,-522,504,-524v105,0,191,39,256,116r35,-98r241,0r0,463r-301,0v-6,-100,-33,-214,-129,-215v-123,-1,-180,132,-180,262v0,133,83,242,216,242v91,0,172,-39,243,-117r180,209v-101,111,-291,209,-502,209","w":1087},"d":{"d":"496,18v-281,0,-476,-259,-476,-540v0,-288,206,-524,476,-522v90,0,176,26,258,77r0,-303r-95,0r0,-266r510,0r0,1270r99,0r0,266r-480,0r-34,-76v-68,63,-154,94,-258,94xm606,-778v-106,0,-145,128,-145,256v0,110,50,252,147,252v100,0,146,-132,146,-262v0,-112,-55,-246,-148,-246","w":1298},"e":{"d":"410,-410v18,105,81,168,211,168v112,0,207,-33,286,-98r172,199v-224,198,-663,258,-906,37v-106,-97,-163,-233,-163,-414v0,-321,236,-535,551,-535v235,0,433,124,490,297v33,99,39,234,4,346r-645,0xm725,-612v-5,-103,-36,-164,-152,-164v-102,0,-149,82,-157,164r309,0","w":1110},"f":{"d":"135,-1198v2,-250,148,-374,406,-375v92,-1,243,23,301,51r-123,236v-30,-13,-68,-20,-113,-21v-93,-3,-59,184,-65,283r186,0r0,266r-186,0r0,490r123,0r0,268r-611,0r0,-268r82,0r0,-490r-84,0r0,-266r84,0r0,-174"},"g":{"d":"512,-6v-315,0,-490,-218,-492,-512v-1,-324,188,-526,515,-526v83,0,176,43,217,83r41,-63r487,0r0,268r-123,0r0,613v-3,371,-245,563,-639,563v-197,0,-366,-89,-469,-180r109,-228v64,56,230,131,356,131v172,0,254,-87,238,-262v-59,75,-139,113,-240,113xm602,-778v-106,0,-145,128,-145,256v0,110,50,252,147,252v100,0,146,-132,146,-262v0,-112,-55,-246,-148,-246","w":1310},"h":{"d":"797,-557v2,-106,-17,-191,-121,-191v-86,0,-129,64,-129,191r0,289r147,0r0,268r-643,0r0,-268r86,0r0,-1002r-86,0r0,-266r496,0r0,639v35,-57,211,-164,321,-164v147,0,249,53,300,147v84,157,52,412,59,646r96,0r0,268r-526,0r0,-557","w":1353},"i":{"d":"51,0r0,-268r86,0r0,-490r-86,0r0,-266r475,0r0,756r99,0r0,268r-574,0xm330,-1116v-113,0,-222,-101,-221,-207v1,-109,99,-209,221,-209v122,0,225,100,225,209v0,122,-95,207,-225,207","w":675},"j":{"d":"29,154v83,3,151,-35,184,-76v39,-49,49,-132,49,-221r0,-615r-86,0r0,-266r475,0r0,881v5,396,-220,571,-622,571r0,-274xm455,-1116v-113,0,-223,-101,-222,-207v1,-109,99,-209,221,-209v122,0,226,100,226,209v0,122,-95,207,-225,207","w":737},"k":{"d":"78,0r0,-266r84,0r0,-1002r-84,0r0,-268r473,0r0,926r237,-142r-147,0r0,-270r573,0r0,270r-157,0r-139,88r276,396r102,0r0,268r-606,0r0,-268r86,0r-155,-221r-72,49r0,172r76,0r0,268r-547,0","w":1339},"l":{"d":"51,0r0,-268r88,0r0,-1004r-86,0r0,-264r475,0r0,1268r121,0r0,268r-598,0","w":679},"m":{"d":"1231,-756v-88,0,-109,58,-109,150r0,332r123,0r0,274r-530,0r0,-522v0,-91,-5,-154,-15,-186v-10,-32,-33,-48,-71,-48v-61,0,-92,41,-92,123r0,365r122,0r0,268r-608,0r0,-268r86,0r0,-484r-86,0r0,-270r387,0r45,121v83,-100,169,-150,256,-150v154,0,250,56,305,148v87,-98,188,-147,302,-148v156,-1,261,56,316,155v84,151,64,388,67,620r100,0r0,276r-520,0r2,-596v-3,-74,-5,-160,-80,-160","w":1859},"n":{"d":"51,0r0,-268r86,0r0,-490r-86,0r0,-266r436,0r48,127v106,-155,268,-200,453,-137v160,55,210,213,210,424r0,342r96,0r0,268r-516,0r0,-607v0,-19,-9,-88,-22,-97v-17,-20,-50,-46,-92,-46v-86,0,-129,64,-129,191r0,291r147,0r0,268r-631,0","w":1325},"o":{"d":"23,-510v0,-317,259,-541,561,-539v330,2,569,211,569,547v0,321,-245,529,-559,529v-314,0,-571,-208,-571,-537xm584,-782v-95,0,-142,149,-142,268v0,135,44,278,152,278v102,0,139,-146,139,-272v0,-132,-40,-274,-149,-274","w":1175},"p":{"d":"1286,-504v0,299,-186,528,-467,527v-115,0,-203,-27,-266,-80r0,207r111,0r0,268r-613,0r0,-268r86,0r0,-902r-86,0r0,-272r469,0r35,72v79,-59,162,-88,248,-88v303,0,483,238,483,536xm698,-752v-99,0,-145,135,-145,263v0,112,55,245,147,245v105,0,146,-128,146,-256v0,-110,-50,-252,-148,-252","w":1306},"q":{"d":"522,18v-279,1,-471,-237,-471,-536v0,-322,190,-522,490,-526v95,-1,206,39,243,81r39,-61r477,0r0,266r-100,0r0,955r100,0r0,274r-649,0r0,-268r133,0r0,-271v-69,57,-157,86,-262,86xm637,-778v-100,0,-145,134,-145,262v0,112,55,246,147,246v105,0,145,-129,145,-256v0,-110,-50,-252,-147,-252","w":1351},"r":{"d":"817,-707v-187,3,-289,45,-289,228r0,211r103,0r0,268r-580,0r0,-268r90,0r0,-490r-88,0r0,-266r385,0r62,131v59,-115,138,-186,317,-182r0,368","w":847},"s":{"d":"618,25v-136,0,-263,-66,-313,-150r-18,125r-256,0r0,-369r274,0v7,95,117,134,217,138v74,3,114,-56,74,-101v-72,-46,-200,-61,-285,-92v-181,-66,-272,-173,-272,-328v0,-184,190,-297,360,-297v132,0,265,72,306,160r16,-135r252,0r0,369r-266,0v2,-88,-115,-156,-209,-156v-65,0,-99,55,-68,103v84,65,264,96,360,143v58,28,155,84,182,151v16,38,27,81,27,131v0,190,-187,308,-381,308","w":1040},"t":{"d":"713,-2v-97,33,-297,58,-399,18v-81,-32,-121,-61,-145,-148v-47,-170,-21,-411,-28,-626r-110,0r0,-266r110,0r0,-188r377,-121r0,309r195,0r0,266r-195,0r0,365v-2,72,-11,166,66,164v31,0,74,-12,129,-35r0,262","w":743},"u":{"d":"528,29v-322,0,-407,-166,-411,-500r0,-283r-86,0r0,-270r495,0r0,494v0,90,8,155,24,196v16,41,46,62,87,62v77,0,129,-73,129,-156r0,-326r-135,0r0,-270r530,0r0,752r101,0r0,272r-388,0r-55,-129r-48,54v-58,61,-126,104,-243,104","w":1292},"v":{"d":"0,-764r0,-260r623,0r0,260r-103,0r94,217v30,89,48,160,54,215r8,0v5,-139,106,-314,160,-432r-109,0r0,-260r528,0r0,260r-106,0r-354,764r-318,0r-381,-764r-96,0","w":1255},"w":{"d":"0,-758r0,-266r551,0r0,266r-70,0v42,136,88,281,97,445r4,0v17,-276,85,-487,149,-711r379,0v67,233,137,424,166,711r4,0v16,-187,47,-305,90,-445r-84,0r0,-266r500,0r0,266r-84,0r-240,758r-432,0r-141,-463r-148,463r-422,0r-231,-758r-88,0","w":1785},"x":{"d":"41,0r0,-254r137,0r209,-235r-254,-279r-92,0r0,-256r664,0r0,256r-97,0r144,156r153,-156r-137,0r0,-256r522,0r0,256r-135,0r-217,219r258,295r96,0r0,254r-653,0r0,-254r96,0r-155,-166r-148,166r133,0r0,254r-524,0","w":1329},"y":{"d":"186,121v55,44,83,71,137,71v96,0,114,-117,142,-196r-399,-758r-84,0r0,-262r630,0r0,260r-96,0r133,320r133,-320r-94,0r0,-260r520,0r0,254r-98,0r-389,946v-71,174,-192,294,-440,289v-93,-2,-175,-40,-248,-103","w":1187},"z":{"d":"51,0r0,-268r494,-492r-228,0r0,146r-266,0r0,-410r1014,0r0,264r-487,492r215,0r0,-140r288,0r0,408r-1030,0","w":1132},"\u00a0":{"w":512},"\u00aa":{"d":"434,39v-211,3,-403,-123,-403,-342v0,-227,199,-380,426,-377v82,1,166,32,202,72r0,-72v0,-77,-65,-115,-194,-115v-90,0,-192,32,-305,95r-86,-238v229,-131,383,-177,638,-124v198,41,364,159,363,400r0,400r123,0r0,262r-438,0r-49,-92v-53,81,-162,130,-277,131xm528,-227v56,0,111,-33,131,-68r0,-78v-23,-39,-63,-59,-120,-59v-79,-1,-119,35,-119,108v-1,58,48,97,108,97","w":1228},"\u00ad":{"d":"96,-352r0,-273r594,0r0,273r-594,0"},"\u00b2":{"d":"600,-1454v269,0,487,179,487,448v0,109,-25,192,-71,251v-109,139,-458,303,-563,483r360,0r0,-164r344,0r0,436r-1106,0r0,-297v136,-229,231,-308,449,-459v68,-47,121,-88,158,-122v103,-94,58,-244,-117,-244v-64,0,-150,53,-181,82r-71,73r-221,-233v146,-169,323,-254,532,-254","w":1208},"\u00b3":{"d":"1075,-424v0,382,-505,560,-845,381v-91,-48,-158,-101,-199,-162r209,-217v89,89,179,133,270,133v108,1,184,-53,184,-157v0,-100,-57,-150,-170,-150r-153,0r0,-244r149,0v96,1,174,-47,174,-141v0,-101,-84,-162,-180,-162v-82,0,-162,41,-240,123r-198,-240v81,-89,268,-194,438,-194v306,0,520,150,522,434v0,95,-50,182,-151,260v127,91,190,203,190,336","w":1105},"\u00b9":{"d":"51,-1163r125,-63v99,-55,163,-125,234,-206r364,0r0,1160r191,0r0,272r-820,0r0,-272r205,0r0,-760r-205,96","w":1015},"\u00ba":{"d":"23,-510v0,-317,259,-541,561,-539v330,2,569,211,569,547v0,321,-245,529,-559,529v-314,0,-571,-208,-571,-537xm584,-782v-95,0,-142,149,-142,268v0,135,44,278,152,278v102,0,139,-146,139,-272v0,-132,-40,-274,-149,-274","w":1175},"\u00c5":{"d":"31,0r0,-268r139,0r276,-899r-84,0r0,-265r787,0r362,1164r144,0r0,268r-821,0r0,-268r194,0r-43,-140r-420,0r-43,140r160,0r0,268r-651,0xm641,-653r268,0r-135,-443","w":1685},"\u00e5":{"d":"434,39v-211,3,-403,-123,-403,-342v0,-227,199,-380,426,-377v82,1,166,32,202,72r0,-72v0,-77,-65,-115,-194,-115v-90,0,-192,32,-305,95r-86,-238v229,-131,383,-177,638,-124v198,41,364,159,363,400r0,400r123,0r0,262r-438,0r-49,-92v-53,81,-162,130,-277,131xm528,-227v56,0,111,-33,131,-68r0,-78v-23,-39,-63,-59,-120,-59v-79,-1,-119,35,-119,108v-1,58,48,97,108,97","w":1228},"\u0152":{"d":"1567,0r0,-272r129,0r0,-889r-129,0r0,-271r1235,0r0,453r-354,0r0,-182r-328,0r0,282r389,0r0,273r-389,0r0,334r328,0r0,-191r354,0r0,463r-1235,0xm764,37v-457,-2,-733,-282,-733,-760v0,-429,296,-747,719,-747v484,0,733,286,735,761v2,460,-263,748,-721,746xm595,-1035v-106,223,-79,750,169,750v64,0,113,-39,152,-115v75,-146,72,-485,0,-632v-41,-83,-93,-124,-172,-123v-61,0,-111,40,-149,120","w":2852},"\u0153":{"d":"1586,-410v18,105,81,168,211,168v112,0,207,-33,286,-98r172,199v-224,198,-663,258,-906,37v-106,-97,-163,-233,-163,-414v0,-321,236,-535,551,-535v235,0,433,124,490,297v33,99,39,234,4,346r-645,0xm1901,-612v-5,-103,-36,-164,-152,-164v-102,0,-149,82,-157,164r309,0xm23,-510v0,-317,259,-541,561,-539v330,2,569,211,569,547v0,321,-245,529,-559,529v-314,0,-571,-208,-571,-537xm584,-782v-95,0,-142,149,-142,268v0,135,44,278,152,278v102,0,139,-146,139,-272v0,-132,-40,-274,-149,-274","w":2285},"\u02da":{"w":1705},"\u2000":{"w":833},"\u2001":{"w":1669},"\u2002":{"w":833},"\u2003":{"w":1669},"\u2004":{"w":555},"\u2005":{"w":415},"\u2006":{"w":276},"\u2007":{"w":276},"\u2008":{"w":206},"\u2009":{"w":333},"\u200a":{"w":92},"\u2010":{"d":"96,-352r0,-273r594,0r0,273r-594,0"},"\u2011":{"d":"96,-352r0,-273r594,0r0,273r-594,0"},"\u2012":{"d":"96,-352r0,-273r594,0r0,273r-594,0"},"\u2013":{"d":"66,-352r0,-273r772,0r0,273r-772,0","w":915},"\u2014":{"d":"86,-352r0,-273r1104,0r0,273r-1104,0","w":1292},"\u2019":{"d":"74,-1436r405,0r-73,613r-256,0","w":559},"\u2022":{"d":"354,-438v-123,0,-231,-105,-231,-221v0,-117,102,-234,231,-234v129,0,237,117,236,234v0,132,-96,221,-236,221","w":712},"\u2026":{"d":"1319,8v-123,0,-231,-105,-231,-221v0,-117,102,-233,231,-233v129,0,237,115,236,233v0,132,-96,221,-236,221xm790,8v-123,0,-231,-105,-231,-221v0,-117,102,-233,231,-233v129,0,237,115,236,233v0,132,-96,221,-236,221xm262,8v-123,0,-231,-105,-231,-221v0,-117,102,-233,231,-233v129,0,237,115,236,233v0,132,-96,221,-236,221","w":1585},"\u202f":{"w":333},"\u205f":{"w":415},"\u2122":{"d":"1487,0r0,-264r111,0r0,-903r-109,0r0,-265r776,0r207,766r197,-766r780,0r0,265r-112,0r0,901r112,0r0,266r-647,0r0,-266r117,0r-2,-805r-8,0v-23,127,-45,218,-60,274r-215,797r-428,0r-229,-817v-23,-79,-38,-164,-43,-254r-9,0r0,807r117,0r0,264r-555,0xm31,-899r0,-533r1374,0r0,533r-301,0r0,-262r-172,0r0,889r170,0r0,272r-762,0r0,-272r168,0r0,-889r-176,0r0,262r-301,0","w":3500},"\ue000":{"d":"0,-1025r1025,0r0,1025r-1025,0r0,-1025","w":1025},"\ufb01":{"d":"842,0r0,-268r86,0r0,-490r-86,0r0,-266r475,0r0,756r99,0r0,268r-574,0xm1121,-1116v-113,0,-222,-101,-221,-207v1,-109,99,-209,221,-209v122,0,225,100,225,209v0,122,-95,207,-225,207xm135,-1198v2,-250,148,-374,406,-375v92,-1,243,23,301,51r-123,236v-30,-13,-68,-20,-113,-21v-93,-3,-59,184,-65,283r186,0r0,266r-186,0r0,490r123,0r0,268r-611,0r0,-268r82,0r0,-490r-84,0r0,-266r84,0r0,-174","w":1466},"\ufb02":{"d":"842,0r0,-268r88,0r0,-1004r-86,0r0,-264r475,0r0,1268r121,0r0,268r-598,0xm135,-1198v2,-250,148,-374,406,-375v92,-1,243,23,301,51r-123,236v-30,-13,-68,-20,-113,-21v-93,-3,-59,184,-65,283r186,0r0,266r-186,0r0,490r123,0r0,268r-611,0r0,-268r82,0r0,-490r-84,0r0,-266r84,0r0,-174","w":1470},"\ufb03":{"d":"1632,0r0,-268r86,0r0,-490r-86,0r0,-266r475,0r0,756r99,0r0,268r-574,0xm1911,-1116v-113,0,-222,-101,-221,-207v1,-109,99,-209,221,-209v122,0,225,100,225,209v0,122,-95,207,-225,207xm926,-1198v2,-250,148,-374,406,-375v92,-1,243,23,301,51r-123,236v-30,-13,-68,-20,-113,-21v-93,-3,-59,184,-65,283r186,0r0,266r-186,0r0,490r123,0r0,268r-611,0r0,-268r82,0r0,-490r-84,0r0,-266r84,0r0,-174xm135,-1198v2,-250,148,-374,406,-375v92,-1,243,23,301,51r-123,236v-30,-13,-68,-20,-113,-21v-93,-3,-59,184,-65,283r186,0r0,266r-186,0r0,490r123,0r0,268r-611,0r0,-268r82,0r0,-490r-84,0r0,-266r84,0r0,-174","w":2256},"\ufb04":{"d":"1632,0r0,-268r88,0r0,-1004r-86,0r0,-264r475,0r0,1268r121,0r0,268r-598,0xm926,-1198v2,-250,148,-374,406,-375v92,-1,243,23,301,51r-123,236v-30,-13,-68,-20,-113,-21v-93,-3,-59,184,-65,283r186,0r0,266r-186,0r0,490r123,0r0,268r-611,0r0,-268r82,0r0,-490r-84,0r0,-266r84,0r0,-174xm135,-1198v2,-250,148,-374,406,-375v92,-1,243,23,301,51r-123,236v-30,-13,-68,-20,-113,-21v-93,-3,-59,184,-65,283r186,0r0,266r-186,0r0,490r123,0r0,268r-611,0r0,-268r82,0r0,-490r-84,0r0,-266r84,0r0,-174","w":2260}}});
